digraph Tree {
node [shape=box] ;
0 [label="age <= 0.5\ngini = 0.492\nsamples = 16\nvalue = [9, 7]"] ;
1 [label="act <= 0.5\ngini = 0.469\nsamples = 8\nvalue = [3, 5]"] ;
0 -> 1 [labeldistance=2.5, labelangle=45, headlabel="True"] ;
2 [label="size <= 0.5\ngini = 0.375\nsamples = 4\nvalue = [3, 1]"] ;
1 -> 2 ;
3 [label="gini = 0.0\nsamples = 2\nvalue = [2, 0]"] ;
2 -> 3 ;
4 [label="color <= 0.5\ngini = 0.5\nsamples = 2\nvalue = [1, 1]"] ;
2 -> 4 ;
5 [label="gini = 0.0\nsamples = 1\nvalue = [1, 0]"] ;
4 -> 5 ;
6 [label="gini = 0.0\nsamples = 1\nvalue = [0, 1]"] ;
4 -> 6 ;
7 [label="gini = 0.0\nsamples = 4\nvalue = [0, 4]"] ;
1 -> 7 ;
8 [label="color <= 0.5\ngini = 0.375\nsamples = 8\nvalue = [6, 2]"] ;
0 -> 8 [labeldistance=2.5, labelangle=-45, headlabel="False"] ;
9 [label="gini = 0.0\nsamples = 4\nvalue = [4, 0]"] ;
8 -> 9 ;
10 [label="size <= 0.5\ngini = 0.5\nsamples = 4\nvalue = [2, 2]"] ;
8 -> 10 ;
11 [label="gini = 0.0\nsamples = 2\nvalue = [2, 0]"] ;
10 -> 11 ;
12 [label="gini = 0.0\nsamples = 2\nvalue = [0, 2]"] ;
10 -> 12 ;
}